%YAML:1.0
---
opencv_ml_svm:
   format: 3
   svmType: C_SVC
   kernel:
      type: RBF
      gamma: 1.
   C: 1.
   term_criteria: { iterations:1000000 }
   var_count: 10
   class_count: 2
   class_labels: !!opencv-matrix
      rows: 2
      cols: 1
      dt: i
      data: [ 0, 1 ]
   sv_total: 184
   support_vectors:
      - [ 5.09074271e-01, 4.96903867e-01, 3.10861439e-01, 5.08100688e-01,
          3.15524310e-01, 5.63495532e-02, 3.67775619e-01, 1.03281163e-01,
          1.00936793e-01, 3.71656865e-01 ]
      - [ 5.12737572e-01, 5.04414320e-01, 3.18785667e-01, 5.02771854e-01,
          3.25431973e-01, 5.18520288e-02, 3.67051154e-01, 1.02306873e-01,
          1.03899345e-01, 3.74890625e-01 ]
      - [ 5.15740097e-01, 5.02530456e-01, 3.27447772e-01, 5.04883468e-01,
          3.31546783e-01, 5.39381281e-02, 3.72850925e-01, 9.15816799e-02,
          9.45720449e-02, 3.87057215e-01 ]
      - [ 5.00021875e-01, 3.14987034e-01, 5.25397241e-01, 5.03067017e-01,
          3.23054701e-01, 9.86891910e-02, 3.79308760e-01, 5.08635156e-02,
          3.78760725e-01, 9.23778266e-02 ]
      - [ 4.95743245e-01, 3.19219440e-01, 5.28515637e-01, 5.11513352e-01,
          3.27468872e-01, 1.03622079e-01, 3.77399147e-01, 5.19447029e-02,
          3.78503978e-01, 8.85300934e-02 ]
      - [ 4.81503338e-01, 3.09462756e-01, 5.23864448e-01, 5.19717991e-01,
          3.14119339e-01, 9.33136493e-02, 3.80850971e-01, 4.35429886e-02,
          3.88675630e-01, 9.36167538e-02 ]
      - [ 5.21971881e-01, 3.09665203e-01, 4.81352597e-01, 3.32980096e-01,
          4.80230719e-01, 4.01833028e-01, 7.72262737e-02, 7.40579516e-02,
          4.06416476e-01, 4.04662564e-02 ]
      - [ 5.24794877e-01, 4.91130501e-01, 3.19432318e-01, 4.97467190e-01,
          3.15968335e-01, 4.85632010e-02, 3.81479293e-01, 9.42733139e-02,
          9.13328975e-02, 3.84351283e-01 ]
      - [ 5.24417758e-01, 4.96197373e-01, 3.24272126e-01, 5.00365317e-01,
          3.18490177e-01, 5.02356850e-02, 3.79358262e-01, 9.45648476e-02,
          9.61268768e-02, 3.79714310e-01 ]
      - [ 5.22197306e-01, 2.69821614e-01, 4.82147962e-01, 3.72045338e-01,
          4.71209466e-01, 3.83488506e-01, 8.84838626e-02, 6.76477998e-02,
          4.13888723e-01, 4.64911200e-02 ]
      - [ 5.24290621e-01, 3.33063185e-01, 5.15109062e-01, 3.35989118e-01,
          4.73182142e-01, 3.56877506e-01, 1.18363470e-01, 9.51230079e-02,
          3.62515688e-01, 6.71203434e-02 ]
      - [ 5.18979073e-01, 3.11108738e-01, 5.01187086e-01, 3.02425623e-01,
          4.80684459e-01, 3.89577717e-01, 8.74959677e-02, 8.33614916e-02,
          3.92627776e-01, 4.69370484e-02 ]
      - [ 5.22086561e-01, 5.08280158e-01, 3.33716691e-01, 4.96345133e-01,
          3.22569013e-01, 4.87509519e-02, 3.82688522e-01, 9.00629684e-02,
          9.04456601e-02, 3.88051897e-01 ]
      - [ 5.09915769e-01, 5.01498818e-01, 3.29494953e-01, 5.05412996e-01,
          3.27575535e-01, 5.26975095e-02, 3.78364444e-01, 8.72162580e-02,
          9.19722691e-02, 3.89749497e-01 ]
      - [ 5.02496958e-01, 3.15652341e-01, 5.26015162e-01, 4.90315020e-01,
          3.20243239e-01, 1.04607709e-01, 3.71607661e-01, 5.12525812e-02,
          3.75516295e-01, 9.70157459e-02 ]
      - [ 5.01164734e-01, 3.23163778e-01, 5.24119854e-01, 5.04256010e-01,
          3.12859237e-01, 9.83967409e-02, 3.78486991e-01, 5.20402417e-02,
          3.75996113e-01, 9.50799137e-02 ]
      - [ 5.06224513e-01, 3.16910565e-01, 5.22578955e-01, 4.93441433e-01,
          3.18437666e-01, 1.04257002e-01, 3.69917512e-01, 5.36193065e-02,
          3.72406691e-01, 9.97994766e-02 ]
      - [ 5.15445888e-01, 3.27997983e-01, 5.05776882e-01, 3.25362027e-01,
          4.98390555e-01, 3.74480277e-01, 9.69076753e-02, 9.44089144e-02,
          3.79845530e-01, 5.43575808e-02 ]
      - [ 5.00849307e-01, 3.40085745e-01, 5.10118902e-01, 5.04409075e-01,
          3.02879214e-01, 8.79874155e-02, 3.88328195e-01, 5.47198132e-02,
          3.74184430e-01, 9.47801545e-02 ]
      - [ 5.00963449e-01, 3.30268204e-01, 5.04270673e-01, 5.17632425e-01,
          3.20846498e-01, 9.20840949e-02, 3.77942026e-01, 5.50241247e-02,
          3.76931012e-01, 9.80187505e-02 ]
      - [ 5.39993465e-01, 3.13475370e-01, 4.92299259e-01, 2.94245929e-01,
          5.13419926e-01, 3.67242485e-01, 1.14048466e-01, 1.13663480e-01,
          3.64432037e-01, 4.06135395e-02 ]
      - [ 5.12102783e-01, 3.23531538e-01, 5.19348145e-01, 4.83674288e-01,
          3.29111964e-01, 1.06128827e-01, 3.62346441e-01, 6.15166500e-02,
          3.63017321e-01, 1.06990747e-01 ]
      - [ 5.05349755e-01, 3.20235431e-01, 5.22192597e-01, 4.93521214e-01,
          3.23852569e-01, 1.00104615e-01, 3.70267630e-01, 5.61934896e-02,
          3.74121189e-01, 9.93130729e-02 ]
      - [ 5.24399042e-01, 3.32285166e-01, 5.07787168e-01, 3.12418729e-01,
          4.87452239e-01, 3.65362972e-01, 1.06067993e-01, 1.22880518e-01,
          3.46784115e-01, 5.89043871e-02 ]
      - [ 5.29052496e-01, 3.12127948e-01, 4.97612268e-01, 3.09516579e-01,
          5.08254468e-01, 3.70910943e-01, 1.06153429e-01, 1.06530286e-01,
          3.73788178e-01, 4.26171497e-02 ]
      - [ 5.10184824e-01, 3.00724119e-01, 4.95879531e-01, 3.14224809e-01,
          4.94128615e-01, 3.66061330e-01, 1.07909188e-01, 1.02737881e-01,
          3.73859316e-01, 4.94322851e-02 ]
      - [ 5.33566952e-01, 3.11878562e-01, 4.95869994e-01, 3.07100207e-01,
          4.94238675e-01, 3.66228521e-01, 1.08146921e-01, 1.06854238e-01,
          3.70084375e-01, 4.86859456e-02 ]
      - [ 4.91622686e-01, 3.08882624e-01, 4.80295092e-01, 5.33188701e-01,
          3.07906479e-01, 1.02551602e-01, 3.72651011e-01, 4.86217700e-02,
          3.76282424e-01, 9.98931974e-02 ]
      - [ 5.17668545e-01, 2.50632763e-01, 4.90485370e-01, 3.02948713e-01,
          4.80801731e-01, 3.70049417e-01, 1.02083482e-01, 9.55870077e-02,
          3.92269075e-01, 4.00110073e-02 ]
      - [ 5.11264384e-01, 2.63881117e-01, 4.97886777e-01, 3.28198612e-01,
          4.54372793e-01, 3.34173769e-01, 1.32087693e-01, 1.08777165e-01,
          3.66102904e-01, 5.88584766e-02 ]
      - [ 5.13533294e-01, 4.68663335e-01, 3.14284027e-01, 4.92476463e-01,
          2.83640742e-01, 5.11530302e-02, 3.74410897e-01, 1.00680426e-01,
          1.05514459e-01, 3.68241191e-01 ]
      - [ 5.04594803e-01, 3.19947392e-01, 5.21886826e-01, 4.88242686e-01,
          3.24935973e-01, 9.81048867e-02, 3.72806460e-01, 5.71944714e-02,
          3.73606861e-01, 9.82873291e-02 ]
      - [ 5.05720019e-01, 3.53146881e-01, 5.11937618e-01, 4.98910725e-01,
          3.29337806e-01, 8.69634449e-02, 3.83680880e-01, 5.94516806e-02,
          3.81332695e-01, 8.85713175e-02 ]
      - [ 5.16708255e-01, 4.97122139e-01, 3.19985420e-01, 5.07594168e-01,
          3.13238114e-01, 5.29488921e-02, 3.75852227e-01, 9.76352021e-02,
          1.01534650e-01, 3.72029036e-01 ]
      - [ 5.01024008e-01, 3.46697122e-01, 5.22207141e-01, 5.04261494e-01,
          3.16518873e-01, 9.13273096e-02, 3.81456316e-01, 5.91033176e-02,
          3.75546396e-01, 9.25666690e-02 ]
      - [ 5.01388013e-01, 3.43616277e-01, 5.20414829e-01, 5.03614724e-01,
          3.32023352e-01, 9.11226794e-02, 3.80517274e-01, 5.95921017e-02,
          3.75753105e-01, 9.30148512e-02 ]
      - [ 4.95041788e-01, 3.50255668e-01, 5.39678931e-01, 4.98694807e-01,
          3.72281194e-01, 1.05195239e-01, 3.58995140e-01, 6.84677586e-02,
          3.66862446e-01, 1.00479387e-01 ]
      - [ 5.18131673e-01, 4.11445707e-01, 3.61899644e-01, 4.84037012e-01,
          2.27966756e-01, 5.05553931e-02, 4.05926108e-01, 6.35628253e-02,
          1.16586149e-01, 3.63369524e-01 ]
      - [ 5.21232307e-01, 2.66412705e-01, 4.87750649e-01, 3.38358641e-01,
          4.42776263e-01, 3.14208418e-01, 1.58512220e-01, 1.12812400e-01,
          3.55882585e-01, 5.85843809e-02 ]
      - [ 5.08755267e-01, 3.25396031e-01, 4.96273965e-01, 3.46306801e-01,
          4.92629319e-01, 3.70531470e-01, 9.81044620e-02, 8.80644396e-02,
          3.82648468e-01, 6.06511422e-02 ]
      - [ 5.51056206e-01, 4.74102736e-01, 4.41560894e-01, 4.98760968e-01,
          4.08812910e-01, 1.06415629e-01, 3.47618788e-01, 9.71082002e-02,
          1.07596889e-01, 3.41260493e-01 ]
      - [ 5.17790735e-01, 3.61819655e-01, 5.08648694e-01, 3.64247650e-01,
          4.97995168e-01, 3.81488025e-01, 8.93415064e-02, 8.44169632e-02,
          3.79044950e-01, 6.57085478e-02 ]
      - [ 5.08159518e-01, 5.00042200e-01, 3.25985253e-01, 5.04685700e-01,
          3.28165144e-01, 5.49048036e-02, 3.76712203e-01, 9.44901183e-02,
          9.27407816e-02, 3.81152093e-01 ]
      - [ 5.08508921e-01, 3.21199030e-01, 5.04126251e-01, 3.15949649e-01,
          5.00396490e-01, 3.76817048e-01, 9.59156156e-02, 9.54730436e-02,
          3.76648277e-01, 5.51460162e-02 ]
      - [ 5.11900544e-01, 3.17151487e-01, 5.00766039e-01, 3.12190503e-01,
          5.03932953e-01, 3.72435868e-01, 1.00981519e-01, 9.92052928e-02,
          3.75199169e-01, 5.21781631e-02 ]
      - [ 5.18735051e-01, 4.90362376e-01, 3.19366425e-01, 4.99842376e-01,
          3.36701363e-01, 4.94508296e-02, 3.87934983e-01, 8.74920487e-02,
          7.77622238e-02, 3.97359908e-01 ]
      - [ 5.11178374e-01, 3.34834963e-01, 4.90628511e-01, 3.50313962e-01,
          5.08381188e-01, 3.99473101e-01, 8.14787671e-02, 6.98054656e-02,
          4.00450975e-01, 4.87917066e-02 ]
      - [ 4.75735933e-01, 2.96032697e-01, 5.32094002e-01, 5.50170362e-01,
          3.13570023e-01, 9.43585485e-02, 3.83161306e-01, 3.48751508e-02,
          3.85064483e-01, 1.02540530e-01 ]
      - [ 4.98002529e-01, 3.18270832e-01, 5.06920934e-01, 5.19903123e-01,
          3.34987670e-01, 8.46226811e-02, 3.86251628e-01, 5.14670722e-02,
          3.88838559e-01, 8.88200626e-02 ]
      - [ 5.35089493e-01, 4.92691696e-01, 3.12155485e-01, 4.87602443e-01,
          3.19071144e-01, 4.47775796e-02, 3.73288721e-01, 9.42617357e-02,
          9.30969417e-02, 3.94575030e-01 ]
      - [ 5.26929498e-01, 3.27693731e-01, 5.16351223e-01, 3.37438434e-01,
          4.75186765e-01, 3.38253468e-01, 1.25466049e-01, 1.20247141e-01,
          3.48068982e-01, 6.79643825e-02 ]
      - [ 5.41833520e-01, 3.06040078e-01, 4.85269308e-01, 3.10199380e-01,
          4.87465084e-01, 3.70578140e-01, 1.06262282e-01, 9.29258615e-02,
          3.91962111e-01, 3.82716022e-02 ]
      - [ 4.95576590e-01, 3.36595386e-01, 5.24630427e-01, 5.11472702e-01,
          3.15695584e-01, 9.15883780e-02, 3.90227467e-01, 5.38234040e-02,
          3.75935763e-01, 8.84249657e-02 ]
      - [ 5.15506446e-01, 3.23717505e-01, 4.99738902e-01, 3.29595834e-01,
          5.04773319e-01, 3.81207019e-01, 9.41230282e-02, 9.21365097e-02,
          3.81303191e-01, 5.12302555e-02 ]
      - [ 5.05557895e-01, 4.92618114e-01, 3.28925788e-01, 5.12720823e-01,
          3.43788922e-01, 6.34051487e-02, 3.74155670e-01, 9.32335183e-02,
          9.08207148e-02, 3.78384918e-01 ]
      - [ 5.09650767e-01, 5.04336417e-01, 3.13596994e-01, 5.00882864e-01,
          3.19651872e-01, 5.33327274e-02, 3.71283263e-01, 1.01257168e-01,
          1.01489276e-01, 3.72637540e-01 ]
      - [ 5.07014215e-01, 4.99291539e-01, 3.21391523e-01, 5.05695283e-01,
          3.25510055e-01, 5.77523969e-02, 3.70596170e-01, 9.96085778e-02,
          9.71695036e-02, 3.74873370e-01 ]
      - [ 5.07568479e-01, 3.16117108e-01, 5.02908826e-01, 3.17532480e-01,
          5.02407014e-01, 3.69158179e-01, 1.03592321e-01, 9.84942466e-02,
          3.72486770e-01, 5.62684722e-02 ]
      - [ 5.07221937e-01, 3.12168896e-01, 5.02834022e-01, 3.12642455e-01,
          5.01723409e-01, 3.68334264e-01, 1.02965131e-01, 1.00884929e-01,
          3.72465789e-01, 5.53498790e-02 ]
      - [ 5.03986359e-01, 3.15055192e-01, 5.04326701e-01, 5.01103222e-01,
          3.15380275e-01, 1.00561798e-01, 3.71698260e-01, 5.75076416e-02,
          3.69293481e-01, 1.00938834e-01 ]
      - [ 5.08549452e-01, 3.21961284e-01, 5.05326867e-01, 4.96842504e-01,
          3.14227074e-01, 9.82191116e-02, 3.73251110e-01, 6.03671670e-02,
          3.67976904e-01, 1.00185692e-01 ]
      - [ 5.08058190e-01, 5.00397861e-01, 3.17218155e-01, 5.05087733e-01,
          3.26939583e-01, 5.95227219e-02, 3.68742943e-01, 9.91413891e-02,
          9.62387696e-02, 3.76354188e-01 ]
      - [ 5.03851533e-01, 5.01155376e-01, 3.25311422e-01, 5.04493654e-01,
          3.33324611e-01, 6.02359585e-02, 3.70792925e-01, 9.66056883e-02,
          9.51631889e-02, 3.77202243e-01 ]
      - [ 5.09732366e-01, 3.23092014e-01, 5.01542091e-01, 3.17517489e-01,
          5.04030108e-01, 3.73548478e-01, 1.01149216e-01, 9.68872458e-02,
          3.74238104e-01, 5.41769378e-02 ]
      - [ 5.03908932e-01, 3.23206007e-01, 5.07973075e-01, 5.01454592e-01,
          3.05192173e-01, 9.68704075e-02, 3.78198653e-01, 5.48514500e-02,
          3.70052010e-01, 1.00027494e-01 ]
      - [ 5.16422808e-01, 5.00172436e-01, 3.16269428e-01, 5.05771935e-01,
          3.14664632e-01, 5.65182753e-02, 3.66078407e-01, 1.03027202e-01,
          1.05688781e-01, 3.68687361e-01 ]
      - [ 5.13837993e-01, 5.01182973e-01, 3.18908989e-01, 5.04129112e-01,
          3.16758543e-01, 5.44884205e-02, 3.70332003e-01, 1.00272648e-01,
          1.00056961e-01, 3.74849975e-01 ]
      - [ 5.09857297e-01, 5.00304341e-01, 3.18323404e-01, 5.05177379e-01,
          3.25904608e-01, 5.67584001e-02, 3.70953619e-01, 9.84244123e-02,
          9.84214619e-02, 3.75442117e-01 ]
      - [ 5.09732425e-01, 4.97980028e-01, 3.20086688e-01, 5.07298231e-01,
          3.16618800e-01, 5.27172722e-02, 3.77066821e-01, 9.43792909e-02,
          9.83053669e-02, 3.77531230e-01 ]
      - [ 5.05003929e-01, 3.27323139e-01, 5.16075313e-01, 4.95838106e-01,
          3.21070820e-01, 8.54328349e-02, 3.90597075e-01, 5.14041111e-02,
          3.91602546e-01, 8.09634328e-02 ]
      - [ 4.91084605e-01, 3.07520926e-01, 4.97629672e-01, 5.29807568e-01,
          3.12583774e-01, 8.97627398e-02, 3.88302773e-01, 4.39527482e-02,
          3.88120264e-01, 8.98614898e-02 ]
      - [ 4.90839809e-01, 3.13948065e-01, 5.14125884e-01, 5.33668339e-01,
          3.18700254e-01, 8.82989317e-02, 3.85602176e-01, 4.91363294e-02,
          3.76612991e-01, 1.00349553e-01 ]
      - [ 5.13857484e-01, 4.70541239e-01, 3.31110358e-01, 5.06865859e-01,
          3.27453047e-01, 5.93818575e-02, 3.84025872e-01, 8.28764960e-02,
          8.38978812e-02, 3.89817894e-01 ]
      - [ 4.85343695e-01, 3.09820980e-01, 5.11216581e-01, 5.36364496e-01,
          3.25696796e-01, 8.54762718e-02, 3.94063056e-01, 4.64491136e-02,
          3.85750771e-01, 8.82607624e-02 ]
      - [ 5.07307947e-01, 4.43302512e-01, 3.46722454e-01, 5.00491619e-01,
          3.15218300e-01, 6.42353445e-02, 3.59887958e-01, 1.07142366e-01,
          1.20274015e-01, 3.48460317e-01 ]
      - [ 4.70426947e-01, 3.14955652e-01, 5.48137426e-01, 5.05630851e-01,
          2.77682960e-01, 8.60857889e-02, 4.01656866e-01, 3.78216319e-02,
          3.87143195e-01, 8.72925371e-02 ]
      - [ 5.27601123e-01, 4.67071682e-01, 3.21378261e-01, 4.92279917e-01,
          3.40780735e-01, 4.63712066e-02, 3.81423205e-01, 8.62712041e-02,
          8.22393075e-02, 4.03695077e-01 ]
      - [ 5.21470845e-01, 4.90954995e-01, 3.29046696e-01, 5.00777900e-01,
          3.43530804e-01, 4.75966297e-02, 3.88200134e-01, 7.93233141e-02,
          8.60104337e-02, 3.98869485e-01 ]
      - [ 4.70403135e-01, 3.16401213e-01, 5.18548250e-01, 5.52460432e-01,
          3.14950913e-01, 7.81711116e-02, 3.91779333e-01, 3.94008160e-02,
          3.94791722e-01, 9.58570093e-02 ]
      - [ 5.49296081e-01, 4.66793895e-01, 3.24991226e-01, 4.68411893e-01,
          3.19828570e-01, 4.33638580e-02, 3.83085668e-01, 8.49794447e-02,
          8.31430852e-02, 4.05427963e-01 ]
      - [ 4.77882653e-01, 3.35591614e-01, 5.44870079e-01, 4.95558202e-01,
          3.43423903e-01, 9.04834941e-02, 4.00524557e-01, 5.39489537e-02,
          3.79758745e-01, 7.52842650e-02 ]
      - [ 5.34029007e-01, 3.63689393e-01, 5.08023381e-01, 3.59226763e-01,
          4.52254951e-01, 3.54002595e-01, 1.13987073e-01, 7.98327625e-02,
          3.78575921e-01, 7.36016631e-02 ]
      - [ 5.28635919e-01, 4.67496485e-01, 3.51271987e-01, 4.77897733e-01,
          3.04861456e-01, 4.13182527e-02, 3.83917272e-01, 9.15816799e-02,
          9.24302414e-02, 3.90752554e-01 ]
      - [ 5.13950706e-01, 3.00285578e-01, 4.92977798e-01, 3.42035413e-01,
          4.52192426e-01, 3.65706146e-01, 1.03785887e-01, 8.49794447e-02,
          3.97514641e-01, 4.80139032e-02 ]
      - [ 5.28277636e-01, 3.59703690e-01, 5.00412941e-01, 3.44438225e-01,
          4.15190279e-01, 3.73821110e-01, 9.11426842e-02, 9.30737406e-02,
          3.74373406e-01, 6.75890744e-02 ]
      - [ 5.16973674e-01, 3.55232894e-01, 5.09434640e-01, 3.28234732e-01,
          4.88559455e-01, 4.02123779e-01, 9.06795561e-02, 7.02443570e-02,
          3.91319990e-01, 4.56323363e-02 ]
      - [ 5.18684685e-01, 3.41574043e-01, 5.05619168e-01, 3.40567917e-01,
          4.86244828e-01, 3.87218624e-01, 8.93731266e-02, 8.55752900e-02,
          3.88542205e-01, 4.92907539e-02 ]
      - [ 5.30086040e-01, 3.30054104e-01, 4.96172190e-01, 3.13556105e-01,
          4.90792930e-01, 3.88169318e-01, 9.72939879e-02, 9.00126174e-02,
          3.81040961e-01, 4.34831195e-02 ]
      - [ 5.20818412e-01, 4.90405679e-01, 3.25814009e-01, 5.03643870e-01,
          3.08714598e-01, 4.88678478e-02, 3.83368850e-01, 8.97178501e-02,
          9.79131982e-02, 3.80132258e-01 ]
      - [ 5.16148746e-01, 4.92966056e-01, 3.10463607e-01, 5.12191892e-01,
          3.05047750e-01, 5.42799905e-02, 3.67923170e-01, 1.03135914e-01,
          1.06191836e-01, 3.68469089e-01 ]
      - [ 5.73462367e-01, 8.95597786e-02, 3.69264424e-01, 4.56667066e-01,
          3.12818855e-01, 2.45028019e-01, 1.08594052e-01, 1.09989472e-01,
          4.65779305e-01, 7.06091374e-02 ]
      - [ 5.24008095e-01, 4.11065757e-01, 6.25103831e-01, 5.13832211e-01,
          5.13832211e-01, 2.18583524e-01, 2.76284218e-01, 1.21299386e-01,
          2.50000000e-01, 1.33832857e-01 ]
      - [ 5.75711489e-01, 3.75966758e-01, 3.94934833e-01, 4.86207128e-01,
          4.21790600e-01, 9.95490327e-02, 3.14440519e-01, 6.65624663e-02,
          1.26337409e-01, 3.93110573e-01 ]
      - [ 7.07106829e-01, 5.27046323e-01, 5.27046323e-01, 7.07106829e-01,
          4.71404552e-01, 7.37918094e-02, 3.52416396e-01, 7.37918094e-02,
          2.50000000e-01, 2.50000000e-01 ]
      - [ 5.32006145e-01, 4.41161275e-01, 3.36470246e-01, 5.54829240e-01,
          3.61616492e-01, 1.01122469e-01, 3.02502096e-01, 1.11487463e-01,
          1.66273922e-01, 3.18614036e-01 ]
      - [ 6.87778711e-01, 2.41495237e-01, 3.41525823e-01, 2.30512366e-01,
          3.59999835e-02, 4.09516513e-01, 1.25000000e-01, 9.14034545e-02,
          3.57388347e-01, 1.66916829e-02 ]
      - [ 5.16015708e-01, 3.17161977e-01, 5.43928266e-01, 4.48534757e-01,
          3.84615391e-01, 2.15197757e-01, 2.33594045e-01, 6.34268150e-02,
          3.11573178e-01, 1.76208198e-01 ]
      - [ 4.85239178e-01, 4.85239178e-01, 6.13784373e-01, 4.85239178e-01,
          2.17005551e-01, 1.47583619e-01, 3.01208198e-01, 5.12081906e-02,
          3.23791802e-01, 1.76208198e-01 ]
      - [ 4.73205149e-01, 1.62308022e-01, 2.56631523e-01, 6.18050575e-01,
          3.62931788e-01, 1.63989559e-01, 3.01208198e-01, 1.34351283e-01,
          2.40648717e-01, 1.59802243e-01 ]
      - [ 4.53236759e-01, 4.11608428e-01, 4.53236759e-01, 6.05288327e-01,
          4.53236759e-01, 2.42770657e-01, 1.40354276e-01, 1.59142628e-01,
          3.40857357e-01, 1.16875060e-01 ]
      - [ 3.95284712e-01, 2.79508501e-01, 5.15388191e-01, 6.25000000e-01,
          2.79508501e-01, 1.25000000e-01, 3.87218624e-01, 3.89895663e-02,
          3.23791802e-01, 1.25000000e-01 ]
      - [ 4.16666657e-01, 2.35702261e-01, 5.89255631e-01, 4.85912651e-01,
          3.53553385e-01, 3.75000000e-01, 1.47583619e-01, 6.34268150e-02,
          2.88989574e-01, 1.25000000e-01 ]
      - [ 5.84293902e-01, 3.42630535e-01, 5.25997221e-01, 4.64493513e-01,
          3.04380357e-01, 2.23135218e-01, 2.51120806e-01, 8.11890364e-02,
          1.47297889e-01, 2.97257066e-01 ]
      - [ 5.81755877e-01, 4.61288482e-01, 4.65725988e-01, 3.56579125e-01,
          3.21852118e-01, 3.65427703e-01, 1.04965307e-01, 9.95490327e-02,
          2.28149816e-01, 2.01908156e-01 ]
      - [ 4.26992357e-01, 2.50738561e-01, 5.77243507e-01, 3.96452457e-01,
          3.26923072e-01, 2.40648717e-01, 2.43084580e-01, 5.81236146e-02,
          3.58594060e-01, 9.95490327e-02 ]
      - [ 5.32029390e-01, 4.07145143e-01, 7.16743946e-01, 2.18396798e-01,
          3.63516957e-01, 2.85923898e-01, 2.62807369e-01, 5.34709059e-02,
          2.02261925e-01, 1.95535898e-01 ]
      - [ 4.86504227e-01, 4.61538434e-01, 2.17571303e-01, 5.43928266e-01,
          4.86504227e-01, 5.12081906e-02, 3.75000000e-01, 1.02416381e-01,
          7.37918094e-02, 3.97583604e-01 ]
      - [ 5.40832639e-01, 4.03112859e-01, 4.03112859e-01, 5.70087671e-01,
          3.60555112e-01, 1.76208198e-01, 2.50000000e-01, 1.25000000e-01,
          1.98791802e-01, 2.50000000e-01 ]
      - [ 5.71428597e-01, 6.06091559e-01, 6.06091559e-01, 4.51753974e-01,
          2.02030525e-01, 1.25000000e-01, 2.50000000e-01, 7.37918094e-02,
          1.76208198e-01, 3.75000000e-01 ]
      - [ 5.56788683e-01, 4.78967756e-01, 4.98006970e-01, 4.45430964e-01,
          2.49003485e-01, 9.87157747e-02, 3.27492416e-01, 7.37918094e-02,
          3.23791802e-01, 1.76208198e-01 ]
      - [ 5.18049479e-01, 5.18049479e-01, 5.97505629e-01, 4.09178168e-01,
          4.00050372e-01, 3.42773587e-01, 6.92619309e-02, 9.53617170e-02,
          2.69197851e-01, 2.23404929e-01 ]
      - [ 5.65685451e-01, 4.47213620e-01, 7.21110284e-01, 4.00000036e-01,
          4.00000036e-01, 1.98791802e-01, 2.69791722e-01, 1.56416476e-01,
          2.50000000e-01, 1.25000000e-01 ]
      - [ 5.43928266e-01, 5.43928266e-01, 5.43928266e-01, 4.61538434e-01,
          3.44010442e-01, 1.47583619e-01, 2.50000000e-01, 1.25000000e-01,
          3.23791802e-01, 1.53624579e-01 ]
      - [ 4.85340655e-01, 3.59010994e-01, 5.37483871e-01, 4.47213590e-01,
          3.88730139e-01, 3.95147771e-01, 8.03511813e-02, 5.40000983e-02,
          3.40197742e-01, 1.30303204e-01 ]
      - [ 4.97465283e-01, 1.75880536e-01, 5.12775481e-01, 4.48409170e-01,
          4.48409170e-01, 3.75000000e-01, 1.63989559e-01, 1.17426917e-01,
          2.50000000e-01, 9.35835242e-02 ]
      - [ 4.76221234e-01, 3.40158015e-01, 4.81056094e-01, 5.81262290e-01,
          3.84844869e-01, 1.02416381e-01, 3.75000000e-01, 7.96837434e-02,
          3.17899883e-01, 1.25000000e-01 ]
      - [ 4.94352669e-01, 4.34801340e-01, 3.95948231e-01, 6.26049101e-01,
          3.39522809e-01, 6.30955920e-02, 3.06601197e-01, 1.98791802e-01,
          1.37218624e-01, 2.94292778e-01 ]
      - [ 6.00092351e-01, 5.69297552e-01, 6.00092351e-01, 4.24329340e-01,
          4.24329340e-01, 1.98791802e-01, 1.98791802e-01, 1.25000000e-01,
          3.52416396e-01, 1.25000000e-01 ]
      - [ 5.71428597e-01, 2.85714298e-01, 5.89015067e-01, 5.15078783e-01,
          3.19438279e-01, 2.50000000e-01, 2.88989574e-01, 5.45939542e-02,
          2.30208293e-01, 1.76208198e-01 ]
      - [ 4.44155157e-01, 2.30905280e-01, 6.02127314e-01, 5.26545048e-01,
          2.92074651e-01, 1.72507584e-01, 3.40197742e-01, 5.45939542e-02,
          1.56416476e-01, 2.76284218e-01 ]
      - [ 5.14132798e-01, 4.68190759e-01, 3.31060857e-01, 5.14132798e-01,
          4.32396710e-01, 5.66012077e-02, 2.97020882e-01, 1.46377921e-01,
          8.20521712e-02, 4.17947829e-01 ]
      - [ 6.04342699e-01, 3.82219881e-01, 4.60253686e-01, 3.41867864e-01,
          2.41737083e-01, 3.01208198e-01, 1.15648717e-01, 6.05594702e-02,
          3.75000000e-01, 1.47583619e-01 ]
      - [ 5.44204652e-01, 3.65988106e-01, 6.12214506e-01, 4.57065225e-01,
          4.10311788e-01, 2.45089367e-01, 2.30749622e-01, 7.78557882e-02,
          2.93289989e-01, 1.53015211e-01 ]
      - [ 5.02909839e-01, 5.91772437e-01, 3.52864891e-01, 1.97257474e-01,
          4.60502207e-01, 3.66167128e-01, 1.76208198e-01, 3.23791802e-01,
          9.72594976e-01, 1.61237881e-01 ]
      - [ 5.75875521e-01, 5.15078723e-01, 5.15078723e-01, 5.75875521e-01,
          5.15078723e-01, 1.76208198e-01, 2.50000000e-01, 7.37918094e-02,
          1.76208198e-01, 3.23791802e-01 ]
      - [ 5.10044813e-01, 2.28098974e-01, 5.10044813e-01, 6.45161331e-01,
          4.83870983e-01, 1.76208198e-01, 3.23791802e-01, 5.12081906e-02,
          2.50000000e-01, 1.98791802e-01 ]
      - [ 4.27737534e-01, 3.39713335e-01, 5.93165219e-01, 5.22524357e-01,
          2.65271544e-01, 5.99869750e-02, 3.86012942e-01, 3.79378945e-02,
          3.31021160e-01, 1.85041055e-01 ]
      - [ 5.51539600e-01, 3.34419996e-01, 4.06839490e-01, 5.22380769e-01,
          4.23011571e-01, 3.58594060e-01, 7.61321560e-02, 1.65713191e-01,
          3.09362829e-01, 9.01977569e-02 ]
      - [ 4.57438022e-01, 2.77362555e-01, 3.92249882e-01, 5.46340883e-01,
          2.00008973e-01, 6.34268150e-02, 4.20167238e-01, 4.39788513e-02,
          3.39854002e-01, 1.32573083e-01 ]
      - [ 4.70085829e-01, 4.11927104e-01, 2.27637559e-01, 5.57946920e-01,
          2.58639961e-01, 6.32290691e-02, 2.10150734e-01, 2.69183099e-01,
          1.14303783e-01, 3.43133330e-01 ]
      - [ 4.71946776e-01, 2.67683208e-01, 5.68835557e-01, 1.23939291e-01,
          4.56472069e-01, 3.28374207e-01, 2.40266040e-01, 4.36523706e-01,
          9.27344978e-01, 6.74910471e-02 ]
      - [ 5.35302222e-01, 3.86011928e-01, 5.45903265e-01, 4.41421509e-01,
          2.14120880e-01, 1.56416476e-01, 3.12167048e-01, 7.04060420e-02,
          2.11010441e-01, 2.50000000e-01 ]
      - [ 4.25611794e-01, 2.79011846e-01, 4.65913147e-01, 5.91873527e-01,
          3.46071601e-01, 9.35835242e-02, 3.93184155e-01, 4.46488187e-02,
          3.94791722e-01, 7.37918094e-02 ]
      - [ 5.00000000e-01, 3.72677982e-01, 3.53553385e-01, 5.27046263e-01,
          2.35702261e-01, 7.37918094e-02, 3.01208198e-01, 1.76208198e-01,
          3.23791802e-01, 1.25000000e-01 ]
      - [ 4.53260332e-01, 2.69935936e-01, 7.77335092e-02, 5.57045817e-01,
          4.41743284e-01, 1.69382587e-01, 2.44606987e-01, 1.05552033e-01,
          4.40085605e-02, 4.36449826e-01 ]
      - [ 4.85071272e-01, 6.18346930e-01, 6.55295193e-01, 4.66526598e-01,
          4.13023293e-01, 2.18583524e-01, 2.87308425e-01, 1.66615650e-01,
          2.15724751e-01, 1.11767665e-01 ]
      - [ 5.44444501e-01, 2.62264520e-01, 4.75609958e-01, 2.64735281e-01,
          2.42598996e-01, 3.62415373e-01, 9.37563181e-02, 1.31897733e-01,
          2.61302948e-01, 1.50627628e-01 ]
      - [ 5.22644103e-01, 4.57039028e-01, 3.58530909e-01, 5.22644103e-01,
          2.83443570e-01, 5.45939542e-02, 2.81416476e-01, 1.63989559e-01,
          1.37218624e-01, 3.62781376e-01 ]
      - [ 5.20031452e-01, 3.66142958e-01, 2.80334234e-01, 5.11064708e-01,
          5.01937807e-01, 9.19759497e-02, 2.28430092e-01, 2.21605092e-01,
          6.80185556e-02, 3.89970303e-01 ]
      - [ 5.75875521e-01, 5.15078723e-01, 5.15078723e-01, 5.75875521e-01,
          5.15078723e-01, 1.76208198e-01, 2.50000000e-01, 7.37918094e-02,
          1.76208198e-01, 3.23791802e-01 ]
      - [ 6.84210539e-01, 4.24329340e-01, 4.24329340e-01, 6.00092351e-01,
          7.59063423e-01, 2.30208293e-01, 2.50000000e-01, 2.27416381e-01,
          1.98791802e-01, 9.35835242e-02 ]
      - [ 3.86919886e-01, 3.11944783e-01, 6.29859924e-01, 4.32589561e-01,
          1.93459943e-01, 8.26246738e-02, 3.87876302e-01, 5.81236146e-02,
          3.23791802e-01, 1.47583619e-01 ]
      - [ 4.91973579e-01, 3.32056850e-01, 3.63009989e-01, 5.10747671e-01,
          1.86978728e-01, 9.14034545e-02, 3.57388347e-01, 6.65624663e-02,
          2.77021050e-01, 2.07624674e-01 ]
      - [ 5.47546566e-01, 2.85406828e-01, 4.75678027e-01, 4.81587321e-01,
          2.37839013e-01, 3.45500946e-01, 1.02416381e-01, 5.61801642e-02,
          3.41403455e-01, 1.54499039e-01 ]
      - [ 4.93530214e-01, 3.64668548e-01, 2.02963948e-01, 2.68624753e-01,
          5.36219299e-01, 9.20917019e-02, 9.70099211e-01, 2.86640584e-01,
          2.27934808e-01, 4.23233688e-01 ]
      - [ 4.26655054e-01, 3.18009913e-01, 2.01127127e-01, 6.36019826e-01,
          5.12775540e-01, 7.37918094e-02, 3.01208198e-01, 1.98791802e-01,
          8.26246738e-02, 3.43583524e-01 ]
      - [ 5.00000000e-01, 3.72677982e-01, 2.35702261e-01, 6.00925207e-01,
          5.27046263e-01, 7.37918094e-02, 3.01208198e-01, 2.18583524e-01,
          1.05208285e-01, 3.01208198e-01 ]
      - [ 4.27452952e-01, 3.02254885e-01, 6.04509771e-01, 3.44623595e-01,
          2.13726476e-01, 1.25000000e-01, 3.52416396e-01, 1.05208285e-01,
          2.69791722e-01, 1.47583619e-01 ]
      - [ 5.74959576e-01, 1.81818187e-01, 3.74827772e-01, 4.54545468e-01,
          4.06557828e-01, 1.98791802e-01, 2.88989574e-01, 6.34268150e-02,
          7.37918094e-02, 3.75000000e-01 ]
      - [ 5.27732611e-01, 4.47957844e-01, 5.18561006e-01, 4.40275252e-01,
          3.12518030e-01, 9.29066092e-02, 3.57297093e-01, 1.05716765e-01,
          1.30233467e-01, 3.13846052e-01 ]
      - [ 5.19867718e-01, 5.18071949e-01, 7.02800035e-01, 3.45381290e-01,
          4.31726635e-01, 2.36767665e-01, 2.79499054e-01, 2.20500961e-01,
          1.47583619e-01, 1.15648717e-01 ]
      - [ 5.04726946e-01, 5.18166304e-01, 5.50642788e-01, 4.56080526e-01,
          7.43968427e-01, 2.41892219e-01, 2.31313974e-01, 2.54084200e-01,
          9.80973065e-01, 2.91736543e-01 ]
      - [ 4.30013090e-01, 4.30013090e-01, 6.08130336e-01, 4.30013090e-01,
          2.71964163e-01, 1.02416381e-01, 3.75000000e-01, 1.25000000e-01,
          1.98791802e-01, 1.98791802e-01 ]
      - [ 4.15269822e-01, 4.74879205e-01, 6.71580613e-01, 5.75875640e-01,
          3.45525384e-01, 1.32573083e-01, 2.97020882e-01, 1.63989559e-01,
          2.50000000e-01, 1.56416476e-01 ]
      - [ 4.32366222e-01, 3.22885901e-01, 6.83631003e-02, 6.07032597e-01,
          2.16183111e-01, 6.93923309e-02, 7.31815875e-01, 6.16221189e-01,
          2.47819930e-01, 3.34750652e-01 ]
      - [ 5.09261966e-01, 3.23530406e-01, 4.25598949e-01, 5.38425803e-01,
          5.09702802e-01, 2.24569768e-01, 2.03892604e-01, 1.40357196e-01,
          3.60975742e-01, 7.02047050e-02 ]
      - [ 5.10734439e-01, 3.05253178e-01, 3.84310514e-01, 5.29923856e-01,
          4.44411218e-01, 2.16532066e-01, 2.19665065e-01, 1.34036347e-01,
          3.62651795e-01, 6.71147332e-02 ]
      - [ 5.27038813e-01, 3.88641238e-01, 4.76759702e-01, 5.52629709e-01,
          4.24000978e-01, 2.50572503e-01, 2.02794865e-01, 8.21554288e-02,
          3.20882142e-01, 1.43595085e-01 ]
      - [ 5.34386694e-01, 3.03410023e-01, 4.75546360e-01, 4.66515750e-01,
          4.08157557e-01, 2.41270840e-01, 2.27515414e-01, 1.08739868e-01,
          3.35573584e-01, 8.69002715e-02 ]
      - [ 5.76099992e-01, 5.49082994e-01, 5.24649739e-01, 6.32930875e-01,
          4.75957513e-01, 6.96685761e-02, 3.29142988e-01, 9.51888561e-02,
          2.78309733e-01, 2.27689847e-01 ]
      - [ 5.54530978e-01, 3.07598442e-01, 4.77696002e-01, 4.40413952e-01,
          3.37782085e-01, 8.68119895e-02, 3.53622079e-01, 1.12781376e-01,
          3.74578953e-01, 7.22056031e-02 ]
      - [ 6.92111194e-01, 3.92874300e-01, 5.51401198e-01, 4.03731525e-01,
          1.50400430e-01, 2.59351283e-01, 2.84484148e-01, 2.06164569e-01,
          2.37781376e-01, 1.22186262e-02 ]
      - [ 4.63346481e-01, 3.13235104e-01, 4.75759745e-01, 5.74710608e-01,
          3.44262451e-01, 1.01564154e-01, 3.53661388e-01, 4.94200103e-02,
          3.77210349e-01, 1.18144117e-01 ]
      - [ 4.84381318e-01, 2.87972033e-01, 5.27938128e-01, 2.73564190e-01,
          4.07253981e-01, 8.20521712e-02, 3.81889403e-01, 9.67983380e-02,
          3.96312267e-01, 4.29478288e-02 ]
      - [ 5.18306851e-01, 3.66498291e-01, 3.66498291e-01, 6.47883534e-01,
          4.09757525e-01, 1.25000000e-01, 2.50000000e-01, 1.25000000e-01,
          1.98791802e-01, 3.01208198e-01 ]
      - [ 4.87769276e-01, 2.05915958e-01, 5.33883452e-01, 2.05915958e-01,
          3.53339106e-01, 3.59137237e-01, 1.25000000e-01, 1.25000000e-01,
          3.30707222e-01, 6.01555258e-02 ]
      - [ 3.52456033e-01, 3.52456033e-01, 1.15886830e-01, 6.97731078e-01,
          2.89717078e-01, 1.97431549e-01, 2.76284218e-01, 1.32323382e-02,
          3.39184046e-01, 1.73867851e-01 ]
      - [ 4.80884582e-01, 4.03112888e-01, 4.47213590e-01, 5.30330062e-01,
          1.76776692e-01, 5.77007085e-02, 3.43583524e-01, 5.12081906e-02,
          3.97583604e-01, 1.49923965e-01 ]
      - [ 6.13033772e-01, 5.77043355e-01, 1.66232124e-01, 6.49157166e-01,
          3.95129234e-01, 3.30465734e-01, 1.34732038e-01, 8.15464836e-03,
          2.01231807e-01, 3.25415790e-01 ]
      - [ 4.23098505e-01, 3.23941767e-01, 6.13631189e-01, 2.35702261e-01,
          3.23941767e-01, 9.95490327e-02, 3.21581453e-01, 1.39428973e-01,
          2.88989574e-01, 1.50450960e-01 ]
      - [ 5.51604688e-01, 2.53528237e-01, 4.62329000e-01, 3.78663689e-01,
          2.34837249e-01, 3.12167048e-01, 1.39627337e-01, 7.73486122e-02,
          3.32624674e-01, 1.38232335e-01 ]
      - [ 5.78931212e-01, 4.54718351e-01, 5.41659594e-01, 2.14222595e-01,
          5.29626548e-01, 3.58216017e-01, 1.66218162e-01, 2.52829134e-01,
          1.74914271e-01, 4.78224270e-02 ]
      - [ 5.20138144e-01, 4.22037870e-01, 5.05112946e-01, 1.86689481e-01,
          4.17450368e-01, 3.98281664e-01, 7.70066231e-02, 2.63340294e-01,
          1.92945898e-01, 6.84255213e-02 ]
      - [ 6.76513553e-01, 1.65725589e-01, 1.98549002e-01, 3.37994188e-01,
          2.28747696e-01, 1.27857449e-02, 2.88156301e-01, 1.84121698e-01,
          9.97356176e-02, 4.15200651e-01 ]
      - [ 4.23422903e-01, 3.04087013e-01, 7.39945114e-01, 1.45128787e-01,
          3.67429763e-01, 2.35502049e-01, 3.97583604e-01, 4.66403455e-01,
          8.51496398e-01, 4.90144640e-02 ]
      - [ 5.03945231e-01, 3.06803823e-01, 1.31306410e-01, 4.12412196e-01,
          5.25669038e-01, 2.38958642e-01, 1.67146981e-01, 9.28238407e-02,
          7.76169151e-02, 4.23453629e-01 ]
      - [ 6.10070407e-01, 6.27757236e-02, 3.20094645e-01, 4.02505070e-01,
          2.84614056e-01, 8.60104337e-02, 2.81416476e-01, 1.41091108e-01,
          4.27568465e-01, 6.39135316e-02 ]
      - [ 4.52272445e-01, 4.19924438e-01, 1.67969778e-01, 5.93862832e-01,
          2.96931416e-01, 6.05594702e-02, 2.50000000e-01, 2.27416381e-01,
          1.47583619e-01, 3.14440519e-01 ]
      - [ 5.45550704e-01, 3.26815784e-01, 4.84967053e-01, 5.10034740e-01,
          3.09253991e-01, 1.73459142e-01, 2.72974759e-01, 8.17209482e-02,
          2.68259585e-01, 2.03585565e-01 ]
      - [ 5.47669470e-01, 3.17758590e-01, 4.85282302e-01, 5.13672829e-01,
          3.08271140e-01, 1.79852322e-01, 2.67814726e-01, 8.00258294e-02,
          2.60753483e-01, 2.11553618e-01 ]
      - [ 4.57935959e-01, 1.80097982e-01, 5.74572325e-01, 1.02162108e-01,
          3.08314562e-01, 3.19079548e-01, 2.55928487e-01, 4.67558920e-01,
          8.91091108e-01, 6.63419291e-02 ]
      - [ 4.73376751e-01, 5.33073545e-01, 5.36530316e-01, 1.14912167e-01,
          4.76712406e-01, 5.36121130e-01, 9.51952159e-01, 2.74050198e-02,
          5.42711794e-01, 9.41809893e-01 ]
      - [ 5.67392707e-01, 2.70669281e-01, 4.90756363e-01, 5.20358562e-01,
          3.30843985e-01, 2.29201704e-01, 2.20219180e-01, 6.46683797e-02,
          2.69352734e-01, 2.16558024e-01 ]
      - [ 4.74789172e-01, 2.78572142e-01, 5.38656354e-01, 3.85591447e-01,
          3.65475476e-01, 2.13315412e-01, 2.50364184e-01, 8.68677944e-02,
          3.17546844e-01, 1.31905749e-01 ]
   decision_functions:
      -
         sv_count: 184
         rho: -1.7865137491715046e+00
         alpha: [ 1., 1., 1., 1., 1., 1., 1., 1., 8.3753430278353747e-02,
             1., 1., 1., 1., 1., 1., 1., 1., 1., 1., 1.,
             8.7979074637483934e-01, 1., 1., 8.0127592576077133e-01, 1.,
             1., 1., 1., 1., 1., 1., 1., 1., 1., 1., 1., 1., 1., 1., 1.,
             1., 1., 1., 1., 1., 1., 3.4670750102713310e-01, 1., 1., 1.,
             1., 1., 1., 1.3748991310310013e-01, 2.3202729129178257e-01,
             1., 1., 1., 1., 1., 1., 1., 1., 2.0952290050463812e-01,
             8.1547300926302457e-01, 1., 1., 1., 1., 1., 1., 1., 1., 1.,
             1., 1., 2.2173931822772180e-01, 1., 1., 1., 1., 1., 1., 1.,
             1., 1., 1., 1., 9.6656158140165982e-01, 1., 1., 1., 1., 1.,
             -1., -1., -1., -1., -1., -1., -1., -1., -1., -1., -1., -1.,
             -1., -1., -1., -1., -1., -1., -1., -1., -1., -1., -1., -1.,
             -1., -1., -1., -1., -1., -1., -1., -1., -1., -1., -1., -1.,
             -1., -1., -1., -1., -1., -1., -1., -1., -1., -1.,
             -2.6192240829124858e-01, -1., -1., -1., -1., -1., -1., -1.,
             -7.0875768343528611e-01, -1., -1., -1., -1., -1., -1., -1.,
             -1., -1., -1., -1., -1., -1., -1., -1., -1., -1.,
             -7.2366152550648932e-01, -1., -1., -1., -1., -1., -1., -1.,
             -1., -1., -1., -1., -1., -1., -1., -1., -1., -1. ]
         index: [ 131, 137, 136, 135, 134, 133, 132, 130, 129, 128, 127,
             126, 125, 124, 149, 148, 147, 146, 145, 144, 143, 142, 141,
             140, 139, 138, 117, 116, 115, 114, 113, 112, 118, 111, 110,
             109, 108, 107, 123, 122, 121, 120, 119, 175, 177, 176, 174,
             173, 172, 171, 170, 183, 182, 181, 180, 179, 178, 155, 159,
             158, 157, 156, 160, 154, 153, 152, 151, 150, 169, 168, 167,
             166, 165, 164, 163, 162, 161, 92, 93, 94, 90, 106, 91, 103,
             98, 99, 100, 101, 102, 104, 105, 97, 95, 96, 33, 32, 31, 30,
             29, 28, 27, 26, 25, 24, 23, 22, 21, 20, 34, 35, 36, 37, 38,
             39, 40, 41, 42, 43, 44, 45, 1, 0, 2, 3, 4, 5, 6, 7, 8, 19,
             9, 10, 11, 12, 13, 14, 15, 16, 17, 18, 69, 70, 71, 72, 73,
             74, 75, 76, 77, 78, 79, 80, 81, 82, 83, 84, 85, 86, 87, 88,
             89, 56, 47, 48, 49, 50, 51, 52, 53, 54, 55, 46, 57, 58, 59,
             60, 61, 62, 63, 64, 65, 66, 67, 68 ]
