%YAML:1.0
---
opencv_ml_svm:
   format: 3
   svmType: C_SVC
   kernel:
      type: SIGMOID
      gamma: 1.
      coef0: 0.
   C: 1.
   term_criteria: { iterations:1000 }
   var_count: 10
   class_count: 2
   class_labels: !!opencv-matrix
      rows: 2
      cols: 1
      dt: i
      data: [ 0, 1 ]
   sv_total: 145
   support_vectors:
      - [ 4.88093972e-01, 3.54683071e-01, 5.33864498e-01, 4.77563739e-01,
          3.23854625e-01, 8.33535194e-02, 3.94213438e-01, 5.03479019e-02,
          4.03265297e-01, 6.88198358e-02 ]
      - [ 4.75161642e-01, 2.23993346e-01, 5.71073234e-01, 5.71073234e-01,
          5.00864327e-01, 6.25000000e-01, 7.81416476e-01, 9.37167048e-01,
          7.07624674e-01, 9.48791802e-01 ]
      - [ 5.09732366e-01, 3.23092014e-01, 5.01542091e-01, 3.17517489e-01,
          5.04030108e-01, 3.73548478e-01, 1.01149216e-01, 9.68872458e-02,
          3.74238104e-01, 5.41769378e-02 ]
      - [ 5.05557895e-01, 4.92618114e-01, 3.28925788e-01, 5.12720823e-01,
          3.43788922e-01, 6.34051487e-02, 3.74155670e-01, 9.32335183e-02,
          9.08207148e-02, 3.78384918e-01 ]
      - [ 5.20818412e-01, 4.90405679e-01, 3.25814009e-01, 5.03643870e-01,
          3.08714598e-01, 4.88678478e-02, 3.83368850e-01, 8.97178501e-02,
          9.79131982e-02, 3.80132258e-01 ]
      - [ 7.39393473e-01, 4.36318398e-01, 5.46608269e-01, 5.43207467e-01,
          3.20903391e-01, 6.82097971e-01, 7.50228882e-01, 7.86642253e-01,
          1.47237018e-01, 6.33793890e-01 ]
      - [ 4.96885836e-01, 6.16311014e-01, 7.02702701e-01, 5.51245332e-01,
          4.96885836e-01, 6.67375326e-01, 8.94791722e-01, 7.81416476e-01,
          9.06416476e-01, 7.50000000e-01 ]
      - [ 7.58194864e-01, 5.16714990e-01, 5.16714990e-01, 4.99999970e-01,
          4.02589917e-01, 7.17654765e-01, 7.03372657e-01, 8.11009347e-01,
          7.05676734e-01, 6.22865409e-02 ]
      - [ 5.30695796e-01, 4.74724442e-01, 4.78051990e-01, 4.03747320e-01,
          4.83410388e-01, 5.33118606e-01, 9.53772962e-01, 5.40521860e-01,
          3.64029706e-02, 9.36183631e-01 ]
      - [ 5.10184824e-01, 3.00724119e-01, 4.95879531e-01, 3.14224809e-01,
          4.94128615e-01, 3.66061330e-01, 1.07909188e-01, 1.02737881e-01,
          3.73859316e-01, 4.94322851e-02 ]
      - [ 5.56127250e-01, 6.03204727e-01, 4.49533075e-01, 5.72250247e-01,
          5.82070291e-01, 7.60365009e-01, 8.83832872e-01, 7.69791722e-01,
          8.75851095e-01, 7.10159361e-01 ]
      - [ 5.11900544e-01, 3.17151487e-01, 5.00766039e-01, 3.12190503e-01,
          5.03932953e-01, 3.72435868e-01, 1.00981519e-01, 9.92052928e-02,
          3.75199169e-01, 5.21781631e-02 ]
      - [ 5.34029007e-01, 3.63689393e-01, 5.08023381e-01, 3.59226763e-01,
          4.52254951e-01, 3.54002595e-01, 1.13987073e-01, 7.98327625e-02,
          3.78575921e-01, 7.36016631e-02 ]
      - [ 6.27009273e-01, 4.07455623e-01, 3.52180511e-01, 4.03418928e-01,
          3.79410207e-01, 2.61436477e-02, 7.92587578e-01, 6.68588161e-01,
          8.94509256e-01, 6.18171334e-01 ]
      - [ 4.95743245e-01, 3.19219440e-01, 5.28515637e-01, 5.11513352e-01,
          3.27468872e-01, 1.03622079e-01, 3.77399147e-01, 5.19447029e-02,
          3.78503978e-01, 8.85300934e-02 ]
      - [ 6.16499841e-01, 6.35429382e-01, 4.84036148e-01, 5.89099228e-01,
          6.16499841e-01, 7.50218809e-01, 8.68889272e-01, 8.11006069e-01,
          8.34566653e-01, 7.35319197e-01 ]
      - [ 5.65291941e-01, 6.86210215e-01, 2.53525943e-01, 6.05067432e-01,
          5.74899614e-01, 7.97586799e-01, 1.85211580e-02, 6.98238194e-01,
          8.26136589e-01, 6.59517288e-01 ]
      - [ 5.16031981e-01, 3.18010002e-01, 4.97244418e-01, 3.10828060e-01,
          5.06640673e-01, 4.08492506e-01, 7.66997188e-02, 7.20805302e-02,
          4.05999839e-01, 3.67274098e-02 ]
      - [ 5.65685451e-01, 5.65685451e-01, 8.48528147e-01, 6.32455528e-01,
          5.65685451e-01, 2.50000000e-01, 2.50000000e-01, 1.76208198e-01,
          7.37918094e-02, 2.50000000e-01 ]
      - [ 5.29483736e-01, 4.98136669e-01, 3.34649414e-01, 4.92803395e-01,
          3.40612441e-01, 4.93833199e-02, 3.87244701e-01, 7.70504996e-02,
          8.73609036e-02, 3.98960590e-01 ]
      - [ 5.08058190e-01, 5.00397861e-01, 3.17218155e-01, 5.05087733e-01,
          3.26939583e-01, 5.95227219e-02, 3.68742943e-01, 9.91413891e-02,
          9.62387696e-02, 3.76354188e-01 ]
      - [ 5.42801440e-01, 7.21831739e-01, 1.90948978e-01, 5.96186638e-01,
          5.52800179e-01, 8.02485406e-01, 1.32489383e-01, 5.86339235e-01,
          8.44718158e-01, 6.33967757e-01 ]
      - [ 5.68626344e-01, 5.96593082e-01, 4.20030653e-01, 5.60583830e-01,
          5.94013035e-01, 7.72822857e-01, 8.50855589e-01, 7.95011938e-01,
          8.73916745e-01, 7.07392871e-01 ]
      - [ 3.33333343e-01, 3.33333343e-01, 7.45355964e-01, 7.45355964e-01,
          3.33333343e-01, 7.50000000e-01, 8.23791802e-01, 8.52416396e-01,
          8.23791802e-01, 7.50000000e-01 ]
      - [ 7.28431344e-01, 3.25764418e-01, 2.91372538e-01, 7.42857158e-01,
          4.60700452e-01, 7.78624594e-01, 8.23791802e-01, 7.81416476e-01,
          7.69791722e-01, 8.46375406e-01 ]
      - [ 5.10573566e-01, 3.34434122e-01, 5.11215270e-01, 4.93382394e-01,
          3.27080220e-01, 8.46445039e-02, 3.89499545e-01, 5.58598265e-02,
          3.90334398e-01, 7.96617195e-02 ]
      - [ 0., 4.71404552e-01, 1.05409265e+00, 1.05409265e+00,
          4.71404552e-01, 2.50000000e-01, 9.26208198e-01, 8.97583604e-01,
          9.26208198e-01, 0. ]
      - [ 5.73467433e-01, 4.10505295e-01, 5.12068689e-01, 5.28875411e-01,
          4.72314835e-01, 7.59667814e-01, 8.31221223e-01, 8.06065023e-01,
          7.15766311e-01, 8.87279630e-01 ]
      - [ 5.18708885e-01, 5.08756757e-01, 3.15517545e-01, 4.98605967e-01,
          3.24807346e-01, 4.57222648e-02, 3.77791911e-01, 9.34593752e-02,
          9.96817648e-02, 3.83344680e-01 ]
      - [ 5.05003929e-01, 3.27323139e-01, 5.16075313e-01, 4.95838106e-01,
          3.21070820e-01, 8.54328349e-02, 3.90597075e-01, 5.14041111e-02,
          3.91602546e-01, 8.09634328e-02 ]
      - [ 4.95576590e-01, 3.36595386e-01, 5.24630427e-01, 5.11472702e-01,
          3.15695584e-01, 9.15883780e-02, 3.90227467e-01, 5.38234040e-02,
          3.75935763e-01, 8.84249657e-02 ]
      - [ 5.37436664e-01, 3.09007525e-01, 4.84300584e-01, 3.14922988e-01,
          5.10860324e-01, 3.83233160e-01, 9.30918679e-02, 7.88488239e-02,
          4.05501813e-01, 3.93243469e-02 ]
      - [ 4.71404523e-01, 4.71404523e-01, 4.71404523e-01, 6.66666687e-01,
          4.71404523e-01, 7.50000000e-01, 7.50000000e-01, 8.75000000e-01,
          8.75000000e-01, 7.50000000e-01 ]
      - [ 4.85343695e-01, 3.09820980e-01, 5.11216581e-01, 5.36364496e-01,
          3.25696796e-01, 8.54762718e-02, 3.94063056e-01, 4.64491136e-02,
          3.85750771e-01, 8.82607624e-02 ]
      - [ 5.41833520e-01, 3.06040078e-01, 4.85269308e-01, 3.10199380e-01,
          4.87465084e-01, 3.70578140e-01, 1.06262282e-01, 9.29258615e-02,
          3.91962111e-01, 3.82716022e-02 ]
      - [ 5.09915769e-01, 5.01498818e-01, 3.29494953e-01, 5.05412996e-01,
          3.27575535e-01, 5.26975095e-02, 3.78364444e-01, 8.72162580e-02,
          9.19722691e-02, 3.89749497e-01 ]
      - [ 5.33566952e-01, 3.11878562e-01, 4.95869994e-01, 3.07100207e-01,
          4.94238675e-01, 3.66228521e-01, 1.08146921e-01, 1.06854238e-01,
          3.70084375e-01, 4.86859456e-02 ]
      - [ 5.00000000e-01, 5.00000000e-01, 5.00000000e-01, 1.,
          7.07106769e-01, 5.00000000e-01, 7.50000000e-01, 0.,
          8.75000000e-01, 8.75000000e-01 ]
      - [ 5.26929498e-01, 3.27693731e-01, 5.16351223e-01, 3.37438434e-01,
          4.75186765e-01, 3.38253468e-01, 1.25466049e-01, 1.20247141e-01,
          3.48068982e-01, 6.79643825e-02 ]
      - [ 5.43117166e-01, 6.75048530e-01, 1.05503313e-01, 6.23062432e-01,
          5.91396093e-01, 7.91435599e-01, 7.86910832e-01, 9.29024518e-01,
          8.35896492e-01, 6.56732500e-01 ]
      - [ 7.07106769e-01, 5.00000000e-01, 0., 7.07106769e-01,
          7.07106769e-01, 8.75000000e-01, 2.50000000e-01, 3.75000000e-01,
          7.50000000e-01, 7.50000000e-01 ]
      - [ 5.13837993e-01, 5.01182973e-01, 3.18908989e-01, 5.04129112e-01,
          3.16758543e-01, 5.44884205e-02, 3.70332003e-01, 1.00272648e-01,
          1.00056961e-01, 3.74849975e-01 ]
      - [ 5.61991870e-01, 7.07114577e-01, 4.45206970e-01, 5.74954987e-01,
          5.57799280e-01, 8.01757216e-01, 5.37137054e-02, 6.54023468e-01,
          8.41925025e-01, 6.48580611e-01 ]
      - [ 5.27046263e-01, 3.33333343e-01, 5.00000000e-01, 4.71404523e-01,
          4.71404523e-01, 9.48791802e-01, 5.00000000e-01, 8.75000000e-01,
          7.50000000e-01, 9.26208198e-01 ]
      - [ 5.76681316e-01, 6.16411090e-01, 4.54543054e-01, 5.58655560e-01,
          6.03583217e-01, 7.62476981e-01, 8.90315473e-01, 7.65965998e-01,
          8.71082187e-01, 7.10159361e-01 ]
      - [ 4.91622686e-01, 3.08882624e-01, 4.80295092e-01, 5.33188701e-01,
          3.07906479e-01, 1.02551602e-01, 3.72651011e-01, 4.86217700e-02,
          3.76282424e-01, 9.98931974e-02 ]
      - [ 5.24794877e-01, 4.91130501e-01, 3.19432318e-01, 4.97467190e-01,
          3.15968335e-01, 4.85632010e-02, 3.81479293e-01, 9.42733139e-02,
          9.13328975e-02, 3.84351283e-01 ]
      - [ 5.71428597e-01, 2.02030525e-01, 4.51753974e-01, 4.04061049e-01,
          4.04061049e-01, 8.75000000e-01, 5.73791802e-01, 9.26208198e-01,
          7.50000000e-01, 8.75000000e-01 ]
      - [ 5.23068726e-01, 6.80051088e-01, 1.17318712e-01, 6.43725336e-01,
          5.94485581e-01, 7.89361119e-01, 6.06149256e-01, 1.17238045e-01,
          8.39616060e-01, 6.47635520e-01 ]
      - [ 5.28635919e-01, 4.67496485e-01, 3.51271987e-01, 4.77897733e-01,
          3.04861456e-01, 4.13182527e-02, 3.83917272e-01, 9.15816799e-02,
          9.24302414e-02, 3.90752554e-01 ]
      - [ 5.57693899e-01, 6.81687713e-01, 1.71844959e-01, 6.08651042e-01,
          5.81056416e-01, 7.95365751e-01, 9.77895439e-01, 7.35846341e-01,
          8.32081974e-01, 6.58810496e-01 ]
      - [ 6.34805858e-01, 4.55764055e-01, 6.52554810e-01, 5.09559691e-01,
          2.77230442e-01, 8.08437526e-01, 6.81180179e-01, 7.45028019e-01,
          7.97507584e-01, 9.67846692e-01 ]
      - [ 5.25828660e-01, 5.11502624e-01, 3.21230143e-01, 4.92744565e-01,
          3.36504966e-01, 4.45479602e-02, 3.77867341e-01, 9.01977569e-02,
          8.00827965e-02, 4.07304138e-01 ]
      - [ 6.48417890e-01, 5.08934855e-01, 6.34728849e-01, 6.33629739e-01,
          4.20435071e-01, 1.69109926e-01, 2.65685081e-01, 2.97020882e-01,
          2.82200485e-01, 9.85983670e-01 ]
      - [ 5.58757007e-01, 4.74674881e-01, 5.35262048e-01, 5.74458778e-01,
          4.99181181e-01, 7.87515700e-01, 8.16668510e-01, 7.84541965e-01,
          7.42448807e-01, 8.68825018e-01 ]
      - [ 4.41941738e-01, 4.41941738e-01, 8.14900279e-01, 7.12609649e-01,
          5.92927039e-01, 7.50000000e-01, 7.15197742e-01, 8.04593980e-01,
          9.06416476e-01, 8.23791802e-01 ]
      - [ 5.16973674e-01, 3.55232894e-01, 5.09434640e-01, 3.28234732e-01,
          4.88559455e-01, 4.02123779e-01, 9.06795561e-02, 7.02443570e-02,
          3.91319990e-01, 4.56323363e-02 ]
      - [ 5.16148746e-01, 4.92966056e-01, 3.10463607e-01, 5.12191892e-01,
          3.05047750e-01, 5.42799905e-02, 3.67923170e-01, 1.03135914e-01,
          1.06191836e-01, 3.68469089e-01 ]
      - [ 5.24699748e-01, 4.60192144e-01, 5.24699748e-01, 5.14510453e-01,
          5.14510453e-01, 6.05208278e-01, 8.94791722e-01, 9.29000080e-01,
          7.04832792e-01, 8.66167128e-01 ]
      - [ 4.70403135e-01, 3.16401213e-01, 5.18548250e-01, 5.52460432e-01,
          3.14950913e-01, 7.81711116e-02, 3.91779333e-01, 3.94008160e-02,
          3.94791722e-01, 9.58570093e-02 ]
      - [ 5.09901941e-01, 4.47213590e-01, 5.38516462e-01, 5.00000000e-01,
          5.00000000e-01, 8.94791722e-01, 6.34351254e-01, 8.37024152e-01,
          7.04832792e-01, 9.29000080e-01 ]
      - [ 5.16708255e-01, 4.97122139e-01, 3.19985420e-01, 5.07594168e-01,
          3.13238114e-01, 5.29488921e-02, 3.75852227e-01, 9.76352021e-02,
          1.01534650e-01, 3.72029036e-01 ]
      - [ 5.35089493e-01, 4.92691696e-01, 3.12155485e-01, 4.87602443e-01,
          3.19071144e-01, 4.47775796e-02, 3.73288721e-01, 9.42617357e-02,
          9.30969417e-02, 3.94575030e-01 ]
      - [ 5.16422808e-01, 5.00172436e-01, 3.16269428e-01, 5.05771935e-01,
          3.14664632e-01, 5.65182753e-02, 3.66078407e-01, 1.03027202e-01,
          1.05688781e-01, 3.68687361e-01 ]
      - [ 4.41941738e-01, 4.41941738e-01, 8.14900279e-01, 7.12609649e-01,
          5.92927039e-01, 7.50000000e-01, 7.15197742e-01, 8.04593980e-01,
          9.06416476e-01, 8.23791802e-01 ]
      - [ 5.21063387e-01, 4.90797728e-01, 3.11580062e-01, 5.00205159e-01,
          3.20316851e-01, 4.83893156e-02, 3.87277424e-01, 8.45510066e-02,
          8.83883536e-02, 3.91393900e-01 ]
      - [ 5.29052496e-01, 3.12127948e-01, 4.97612268e-01, 3.09516579e-01,
          5.08254468e-01, 3.70910943e-01, 1.06153429e-01, 1.06530286e-01,
          3.73788178e-01, 4.26171497e-02 ]
      - [ 5.15445888e-01, 3.27997983e-01, 5.05776882e-01, 3.25362027e-01,
          4.98390555e-01, 3.74480277e-01, 9.69076753e-02, 9.44089144e-02,
          3.79845530e-01, 5.43575808e-02 ]
      - [ 5.01546264e-01, 3.77279371e-01, 6.04703069e-01, 4.97862875e-01,
          2.45206565e-01, 6.29379332e-01, 9.11640584e-01, 6.36937201e-01,
          8.90862763e-01, 9.31180179e-01 ]
      - [ 5.13857484e-01, 4.70541239e-01, 3.31110358e-01, 5.06865859e-01,
          3.27453047e-01, 5.93818575e-02, 3.84025872e-01, 8.28764960e-02,
          8.38978812e-02, 3.89817894e-01 ]
      - [ 5.18131673e-01, 4.11445707e-01, 3.61899644e-01, 4.84037012e-01,
          2.27966756e-01, 5.05553931e-02, 4.05926108e-01, 6.35628253e-02,
          1.16586149e-01, 3.63369524e-01 ]
      - [ 5.13533294e-01, 4.68663335e-01, 3.14284027e-01, 4.92476463e-01,
          2.83640742e-01, 5.11530302e-02, 3.74410897e-01, 1.00680426e-01,
          1.05514459e-01, 3.68241191e-01 ]
      - [ 4.95728463e-01, 4.70289290e-01, 7.01065898e-01, 6.46350801e-01,
          7.01065898e-01, 1.98791802e-01, 3.23791802e-01, 1.37218624e-01,
          1.12781376e-01, 2.27416381e-01 ]
      - [ 5.22888839e-01, 5.13672233e-01, 3.10647637e-01, 4.93458301e-01,
          3.22150320e-01, 4.59220298e-02, 3.77245992e-01, 9.22898725e-02,
          9.69155431e-02, 3.87626559e-01 ]
      - [ 5.20211756e-01, 5.02041638e-01, 3.11862469e-01, 4.98948932e-01,
          3.37678641e-01, 4.50917743e-02, 3.83719712e-01, 8.56031552e-02,
          8.06598961e-02, 4.04925466e-01 ]
      - [ 5.16015708e-01, 3.84615391e-01, 7.69230783e-01, 7.29756415e-01,
          6.20173693e-01, 3.23791802e-01, 2.50000000e-01, 5.12081906e-02,
          2.18583524e-01, 1.56416476e-01 ]
      - [ 3.16227764e-01, 3.60555142e-01, 7.28011012e-01, 3.16227764e-01,
          4.47213590e-01, 8.55208278e-01, 6.37876272e-01, 9.04499054e-01,
          8.75000000e-01, 7.27416396e-01 ]
      - [ 5.07307947e-01, 4.43302512e-01, 3.46722454e-01, 5.00491619e-01,
          3.15218300e-01, 6.42353445e-02, 3.59887958e-01, 1.07142366e-01,
          1.20274015e-01, 3.48460317e-01 ]
      - [ 5.45445740e-01, 6.71704292e-01, 1.22426338e-01, 6.20575249e-01,
          5.93535244e-01, 7.91022360e-01, 7.85588861e-01, 9.28548515e-01,
          8.35793018e-01, 6.59047246e-01 ]
      - [ 5.11178374e-01, 3.34834963e-01, 4.90628511e-01, 3.50313962e-01,
          5.08381188e-01, 3.99473101e-01, 8.14787671e-02, 6.98054656e-02,
          4.00450975e-01, 4.87917066e-02 ]
      - [ 5.01388013e-01, 3.43616277e-01, 5.20414829e-01, 5.03614724e-01,
          3.32023352e-01, 9.11226794e-02, 3.80517274e-01, 5.95921017e-02,
          3.75753105e-01, 9.30148512e-02 ]
      - [ 5.12102783e-01, 3.23531538e-01, 5.19348145e-01, 4.83674288e-01,
          3.29111964e-01, 1.06128827e-01, 3.62346441e-01, 6.15166500e-02,
          3.63017321e-01, 1.06990747e-01 ]
      - [ 5.10568261e-01, 5.52833438e-01, 5.99632025e-01, 5.36327183e-01,
          5.36327183e-01, 6.46569908e-01, 8.62781346e-01, 9.26208198e-01,
          7.50000000e-01, 8.14440548e-01 ]
      - [ 6.38876557e-01, 4.51753944e-01, 6.06091499e-01, 7.28431344e-01,
          6.38876557e-01, 3.75000000e-01, 1.76208198e-01, 1.56416476e-01,
          1.44791707e-01, 1.47583619e-01 ]
      - [ 5.06224513e-01, 3.16910565e-01, 5.22578955e-01, 4.93441433e-01,
          3.18437666e-01, 1.04257002e-01, 3.69917512e-01, 5.36193065e-02,
          3.72406691e-01, 9.97994766e-02 ]
      - [ 5.78706264e-01, 4.39133525e-01, 6.05075121e-01, 5.86698234e-01,
          3.25410724e-01, 8.21826458e-01, 5.94186664e-01, 9.58345473e-01,
          5.95282555e-01, 3.03588901e-02 ]
      - [ 4.30013061e-01, 6.08130276e-01, 5.60668409e-01, 4.07946199e-01,
          4.30013061e-01, 6.25000000e-01, 8.87218654e-01, 7.88989544e-01,
          8.01208198e-01, 8.97583604e-01 ]
      - [ 5.28027236e-01, 5.12763917e-01, 3.06921870e-01, 4.94389564e-01,
          3.21122229e-01, 4.02372219e-02, 3.78428161e-01, 9.46375132e-02,
          9.48698744e-02, 3.91827226e-01 ]
      - [ 5.55555582e-01, 3.51364195e-01, 4.71404523e-01, 5.98351657e-01,
          4.71404523e-01, 8.46375406e-01, 6.76208198e-01, 9.35559452e-01,
          8.14440548e-01, 7.27416396e-01 ]
      - [ 5.10150850e-01, 4.78033096e-01, 3.56304824e-01, 5.74524283e-01,
          4.50693905e-01, 8.92611623e-01, 9.26208198e-01, 6.67375326e-01,
          7.81416476e-01, 7.32388377e-01 ]
      - [ 4.90860611e-01, 3.45456392e-01, 5.28734207e-01, 5.12331486e-01,
          3.24206501e-01, 8.39801058e-02, 3.91528964e-01, 4.52219583e-02,
          4.01860625e-01, 7.74083436e-02 ]
      - [ 4.98002529e-01, 3.18270832e-01, 5.06920934e-01, 5.19903123e-01,
          3.34987670e-01, 8.46226811e-02, 3.86251628e-01, 5.14670722e-02,
          3.88838559e-01, 8.88200626e-02 ]
      - [ 5.75875521e-01, 5.75875521e-01, 5.75875521e-01, 7.72618055e-01,
          5.15078723e-01, 1.02416381e-01, 1.47583619e-01, 1.76208198e-01,
          2.50000000e-01, 3.23791802e-01 ]
      - [ 5.37752450e-01, 3.15957099e-01, 4.86774057e-01, 3.00251663e-01,
          5.01725733e-01, 3.83434772e-01, 9.80071276e-02, 9.36947167e-02,
          3.85301918e-01, 3.95614654e-02 ]
      - [ 5.69941998e-01, 4.73953068e-01, 5.36118329e-01, 5.64500690e-01,
          4.93026614e-01, 7.75549769e-01, 8.19391251e-01, 7.86476314e-01,
          7.44634271e-01, 8.73948336e-01 ]
      - [ 5.11264384e-01, 2.63881117e-01, 4.97886777e-01, 3.28198612e-01,
          4.54372793e-01, 3.34173769e-01, 1.32087693e-01, 1.08777165e-01,
          3.66102904e-01, 5.88584766e-02 ]
      - [ 5.65685451e-01, 5.65685451e-01, 8.48528147e-01, 6.32455528e-01,
          5.65685451e-01, 2.50000000e-01, 2.50000000e-01, 1.76208198e-01,
          7.37918094e-02, 2.50000000e-01 ]
      - [ 5.57412744e-01, 6.88309073e-01, 1.77398816e-01, 6.09415054e-01,
          5.75372279e-01, 7.96835303e-01, 8.91077146e-03, 7.07175672e-01,
          8.31387877e-01, 6.55690432e-01 ]
      - [ 5.44479489e-01, 6.76145077e-01, 9.82307047e-02, 6.21738374e-01,
          5.90000927e-01, 7.91924059e-01, 8.13859522e-01, 9.02026117e-01,
          8.35492194e-01, 6.56698167e-01 ]
      - [ 5.41430354e-01, 6.80621624e-01, 6.78002462e-02, 6.25101089e-01,
          5.87188244e-01, 7.92500019e-01, 8.24959040e-01, 8.93301070e-01,
          8.35656404e-01, 6.53583467e-01 ]
      - [ 5.33513367e-01, 3.34717602e-01, 5.13532102e-01, 5.45248806e-01,
          4.52498883e-01, 8.13028574e-01, 7.69197881e-01, 8.99752557e-01,
          6.85901821e-01, 8.32119226e-01 ]
      - [ 5.47255576e-01, 4.58663851e-01, 7.49482393e-01, 4.59459454e-01,
          4.49819386e-01, 7.16403425e-01, 6.96224988e-01, 6.75411429e-03,
          7.62952030e-01, 8.17665339e-01 ]
      - [ 4.96903986e-01, 3.51364166e-01, 6.47883534e-01, 5.66557705e-01,
          4.71404493e-01, 6.25000000e-01, 8.87218654e-01, 8.82573068e-01,
          9.06416476e-01, 6.98791802e-01 ]
      - [ 5.05720019e-01, 3.53146881e-01, 5.11937618e-01, 4.98910725e-01,
          3.29337806e-01, 8.69634449e-02, 3.83680880e-01, 5.94516806e-02,
          3.81332695e-01, 8.85713175e-02 ]
      - [ 5.37175894e-01, 5.01047254e-01, 3.09821039e-01, 4.81508613e-01,
          3.45857114e-01, 3.68292220e-02, 3.90010536e-01, 8.79018307e-02,
          7.94734955e-02, 4.05784905e-01 ]
      - [ 4.85113412e-01, 2.83056110e-01, 5.17668545e-01, 4.86261100e-01,
          3.50788206e-01, 9.51387733e-02, 3.82013679e-01, 4.99717183e-02,
          3.98820102e-01, 7.40557462e-02 ]
      - [ 5.12737572e-01, 5.04414320e-01, 3.18785667e-01, 5.02771854e-01,
          3.25431973e-01, 5.18520288e-02, 3.67051154e-01, 1.02306873e-01,
          1.03899345e-01, 3.74890625e-01 ]
      - [ 4.56578851e-01, 5.25871098e-01, 6.47104204e-01, 4.32064682e-01,
          4.34856713e-01, 8.55665624e-01, 6.95748746e-01, 7.60686278e-01,
          8.43441367e-01, 8.44457984e-01 ]
      - [ 4.72926378e-01, 2.54003972e-01, 5.28249443e-01, 4.56888586e-01,
          3.66761506e-01, 1.00071475e-01, 3.85531962e-01, 4.43521403e-02,
          4.09062147e-01, 6.09822869e-02 ]
      - [ 5.08549452e-01, 3.21961284e-01, 5.05326867e-01, 4.96842504e-01,
          3.14227074e-01, 9.82191116e-02, 3.73251110e-01, 6.03671670e-02,
          3.67976904e-01, 1.00185692e-01 ]
      - [ 4.41941738e-01, 4.41941738e-01, 8.14900279e-01, 7.12609649e-01,
          5.92927039e-01, 7.50000000e-01, 7.15197742e-01, 8.04593980e-01,
          9.06416476e-01, 8.23791802e-01 ]
      - [ 5.24399042e-01, 3.32285166e-01, 5.07787168e-01, 3.12418729e-01,
          4.87452239e-01, 3.65362972e-01, 1.06067993e-01, 1.22880518e-01,
          3.46784115e-01, 5.89043871e-02 ]
      - [ 5.04589677e-01, 3.25907558e-01, 5.16028285e-01, 4.96556520e-01,
          3.18934023e-01, 8.50954130e-02, 3.92991871e-01, 4.85965423e-02,
          3.92781287e-01, 8.05348679e-02 ]
      - [ 5.21232307e-01, 2.66412705e-01, 4.87750649e-01, 3.38358641e-01,
          4.42776263e-01, 3.14208418e-01, 1.58512220e-01, 1.12812400e-01,
          3.55882585e-01, 5.85843809e-02 ]
      - [ 7.07106769e-01, 5.00000000e-01, 5.00000000e-01, 7.07106769e-01,
          7.07106769e-01, 8.75000000e-01, 7.50000000e-01, 8.75000000e-01,
          7.50000000e-01, 7.50000000e-01 ]
      - [ 5.24417758e-01, 4.96197373e-01, 3.24272126e-01, 5.00365317e-01,
          3.18490177e-01, 5.02356850e-02, 3.79358262e-01, 9.45648476e-02,
          9.61268768e-02, 3.79714310e-01 ]
      - [ 5.09732425e-01, 4.97980028e-01, 3.20086688e-01, 5.07298231e-01,
          3.16618800e-01, 5.27172722e-02, 3.77066821e-01, 9.43792909e-02,
          9.83053669e-02, 3.77531230e-01 ]
      - [ 2.82842726e-01, 6.32455528e-01, 8.00000012e-01, 6.32455528e-01,
          2.82842726e-01, 6.76208198e-01, 9.48791802e-01, 9.48791802e-01,
          9.26208198e-01, 5.00000000e-01 ]
      - [ 5.14079213e-01, 2.66723484e-01, 5.29830337e-01, 4.77157265e-01,
          4.68887508e-01, 7.97411382e-01, 7.91615665e-01, 8.90786409e-01,
          6.58326328e-01, 8.61860216e-01 ]
      - [ 6.32455528e-01, 4.00000006e-01, 5.65685451e-01, 5.65685451e-01,
          2.82842726e-01, 9.48791802e-01, 8.75000000e-01, 7.50000000e-01,
          5.00000000e-01, 9.26208198e-01 ]
      - [ 4.56314385e-01, 2.91342825e-01, 6.28669620e-01, 4.66376066e-01,
          2.21521139e-01, 8.29473495e-01, 7.22200036e-01, 6.35188282e-01,
          8.66327405e-01, 9.46810722e-01 ]
      - [ 4.73376751e-01, 5.33073545e-01, 5.36530316e-01, 1.14912167e-01,
          4.76712406e-01, 5.36121130e-01, 9.51952159e-01, 2.74050198e-02,
          5.42711794e-01, 9.41809893e-01 ]
      - [ 5.08755267e-01, 3.25396031e-01, 4.96273965e-01, 3.46306801e-01,
          4.92629319e-01, 3.70531470e-01, 9.81044620e-02, 8.80644396e-02,
          3.82648468e-01, 6.06511422e-02 ]
      - [ 5.16704202e-01, 2.91457653e-01, 4.95623469e-01, 2.81540692e-01,
          4.81294125e-01, 4.06204969e-01, 7.01649711e-02, 8.13307539e-02,
          4.03589725e-01, 3.87095585e-02 ]
      - [ 4.71404523e-01, 4.71404523e-01, 6.66666687e-01, 7.45355964e-01,
          4.71404523e-01, 7.50000000e-01, 8.75000000e-01, 9.26208198e-01,
          6.98791802e-01, 7.50000000e-01 ]
      - [ 5.42049706e-01, 6.82834566e-01, 6.29100204e-02, 6.24634683e-01,
          5.85090697e-01, 7.93131769e-01, 8.61458600e-01, 8.57344985e-01,
          8.35297108e-01, 6.52767539e-01 ]
      - [ 5.68196297e-01, 3.51406336e-01, 4.51094717e-01, 4.34746772e-01,
          1.90977558e-01, 9.33490932e-01, 6.05796874e-01, 9.08923984e-01,
          8.40161383e-01, 7.11626828e-01 ]
      - [ 4.41941738e-01, 4.41941738e-01, 8.14900279e-01, 7.12609649e-01,
          6.25000000e-01, 7.50000000e-01, 7.15197742e-01, 8.67426932e-01,
          8.94791722e-01, 7.72583604e-01 ]
      - [ 5.08508921e-01, 3.21199030e-01, 5.04126251e-01, 3.15949649e-01,
          5.00396490e-01, 3.76817048e-01, 9.59156156e-02, 9.54730436e-02,
          3.76648277e-01, 5.51460162e-02 ]
      - [ 4.95041788e-01, 3.50255668e-01, 5.39678931e-01, 4.98694807e-01,
          3.72281194e-01, 1.05195239e-01, 3.58995140e-01, 6.84677586e-02,
          3.66862446e-01, 1.00479387e-01 ]
      - [ 5.22086561e-01, 5.08280158e-01, 3.33716691e-01, 4.96345133e-01,
          3.22569013e-01, 4.87509519e-02, 3.82688522e-01, 9.00629684e-02,
          9.04456601e-02, 3.88051897e-01 ]
      - [ 4.71404552e-01, 4.71404552e-01, 4.71404552e-01, 6.66666687e-01,
          4.71404552e-01, 7.50000000e-01, 7.50000000e-01, 8.75000000e-01,
          8.75000000e-01, 7.50000000e-01 ]
      - [ 5.32543361e-01, 5.01984060e-01, 6.06345356e-01, 4.62109178e-01,
          7.51393020e-01, 2.39452094e-01, 2.28332818e-01, 2.74906546e-01,
          9.76536512e-01, 2.80772030e-01 ]
      - [ 4.47213590e-01, 5.48662841e-01, 5.68956316e-01, 4.63069081e-01,
          2.72445947e-01, 8.65537643e-01, 6.47373378e-01, 8.89110029e-01,
          7.81416476e-01, 8.16562474e-01 ]
      - [ 7.45356023e-01, 2.35702276e-01, 7.45356023e-01, 6.66666687e-01,
          6.66666687e-01, 3.01208198e-01, 3.01208198e-01, 7.37918094e-02,
          2.50000000e-01, 7.37918094e-02 ]
      - [ 5.15078783e-01, 5.15078783e-01, 5.89015067e-01, 5.15078783e-01,
          5.15078783e-01, 6.87167048e-01, 8.67426932e-01, 9.45406020e-01,
          6.87167048e-01, 8.12832952e-01 ]
      - [ 4.70426947e-01, 3.14955652e-01, 5.48137426e-01, 5.05630851e-01,
          2.77682960e-01, 8.60857889e-02, 4.01656866e-01, 3.78216319e-02,
          3.87143195e-01, 8.72925371e-02 ]
      - [ 5.73221326e-01, 4.97208178e-01, 5.47622144e-01, 5.69664776e-01,
          5.20205319e-01, 7.62113571e-01, 8.20780694e-01, 7.82000482e-01,
          7.39173412e-01, 8.95931840e-01 ]
      - [ 5.09857297e-01, 5.00304341e-01, 3.18323404e-01, 5.05177379e-01,
          3.25904608e-01, 5.67584001e-02, 3.70953619e-01, 9.84244123e-02,
          9.84214619e-02, 3.75442117e-01 ]
      - [ 5.59017003e-01, 5.00000000e-01, 2.50000000e-01, 5.59017003e-01,
          5.59017003e-01, 9.26208198e-01, 7.50000000e-01, 8.23791802e-01,
          8.52416396e-01, 6.47583604e-01 ]
      - [ 5.00263810e-01, 6.66165948e-01, 1.09364234e-01, 6.04877591e-01,
          5.90971768e-01, 7.89237976e-01, 4.56202269e-01, 2.63710290e-01,
          8.59278858e-01, 6.31570637e-01 ]
      - [ 5.13190567e-01, 5.05252659e-01, 3.27213287e-01, 4.99650031e-01,
          3.35562825e-01, 5.00593148e-02, 3.86967391e-01, 8.44840109e-02,
          8.70445073e-02, 3.91444772e-01 ]
      - [ 5.13874650e-01, 4.88308460e-01, 3.50921571e-01, 5.02371490e-01,
          3.88187647e-01, 5.77301793e-02, 4.07942802e-01, 6.51239157e-02,
          6.08021580e-02, 4.08400953e-01 ]
      - [ 5.39333940e-01, 3.18368614e-01, 4.66273665e-01, 3.19309145e-01,
          5.09307325e-01, 3.90354276e-01, 8.31430852e-02, 7.66591579e-02,
          4.15700853e-01, 3.41426358e-02 ]
      - [ 5.27601123e-01, 4.67071682e-01, 3.21378261e-01, 4.92279917e-01,
          3.40780735e-01, 4.63712066e-02, 3.81423205e-01, 8.62712041e-02,
          8.22393075e-02, 4.03695077e-01 ]
   decision_functions:
      -
         sv_count: 145
         rho: 4.1505905203260234e+00
         alpha: [ 1., 1., 1., 1., 1., 1., 1., 1., 1., 1., 1., 1., 1., 1.,
             1., 1., 1., 1., 2.8820053172499485e-02, 1., 1., 1., 1., 1.,
             1., 1., 1., 1., 1., 1., 1., 1., 1., 1., 1., 1., 1., 1., 1.,
             1., 1., 1., 1., 1., 1., 1., 1., 1., 1., 1., 1., 1., 1., 1.,
             1., 9.7117994682750053e-01, 1., 1., 1., 1., 1., 1., 1., 1.,
             1., 1., 1., 1., 1., 1., 1., 1., 1., -1., -1., -1., -1., -1.,
             -1., -1., -1., -1., -1., -1., -1., -1., -1., -1., -1., -1.,
             -1., -1., -1., -1., -1., -1., -1., -1., -1., -1., -1., -1.,
             -1., -1., -1., -1., -1., -1., -1., -1., -1., -1., -1., -1.,
             -1., -1., -1., -1., -1., -1., -1., -1., -1., -1., -1., -1.,
             -1., -1., -1., -1., -1., -1., -1., -1., -1., -1., -1., -1.,
             -1., -1., -1., -1., -1., -1., -1. ]
         index: [ 88, 78, 82, 83, 85, 86, 76, 89, 92, 94, 96, 97, 98, 68,
             58, 60, 64, 99, 72, 75, 124, 125, 126, 127, 131, 132, 133,
             134, 135, 137, 139, 140, 100, 101, 102, 107, 110, 114, 117,
             118, 119, 120, 121, 39, 10, 37, 40, 8, 15, 21, 22, 18, 23,
             24, 16, 13, 26, 27, 32, 50, 51, 1, 6, 53, 54, 55, 7, 5, 42,
             43, 44, 48, 47, 130, 20, 144, 19, 0, 3, 138, 129, 17, 128,
             136, 11, 143, 9, 14, 122, 142, 4, 141, 123, 2, 12, 70, 41,
             84, 81, 80, 79, 77, 74, 73, 45, 46, 71, 49, 87, 69, 67, 66,
             65, 52, 63, 62, 61, 59, 57, 56, 29, 115, 113, 112, 111, 109,
             108, 25, 106, 105, 104, 103, 28, 116, 30, 31, 33, 34, 35,
             36, 95, 93, 38, 91, 90 ]
